Language model created by QuickLM on Mon Jan 26 13:34:13 EST 2015
Copyright (c) 1996-2010 Carnegie Mellon University and Alexander I. Rudnicky

The model is in standard ARPA format, designed by Doug Paul while he was at MITRE.

The code that was used to produce this language model is available in Open Source.
Please visit http://www.speech.cs.cmu.edu/tools/ for more information

The (fixed) discount mass is 0.5. The backoffs are computed using the ratio method.
This model based on a corpus of 51 sentences and 53 words

\data\
ngram 1=53
ngram 2=102
ngram 3=51

\1-grams:
-0.7782 </s> -0.3010
-0.7782 <s> -0.2218
-2.4857 AND -0.2218
-2.4857 ANSWERHERAQUESTION -0.2218
-2.4857 ANSWERHIMAQUESTION -0.2218
-2.4857 ATTHE -0.2218
-2.4857 BEDROOM -0.2218
-2.4857 BRINGA -0.2218
-2.4857 BRINGIT -0.2218
-2.4857 CH -0.2218
-2.4857 COKE -0.2218
-2.4857 COUNTTHE -0.2218
-2.4857 CRACKERS -0.2218
-2.4857 DINNERTABLE -0.2218
-2.4857 DOOR -0.2218
-2.4857 DRINK -0.2218
-2.4857 FINDAPERSON -0.2218
-2.4857 FOLLOWHER -0.2218
-2.4857 FOLLOWHIM -0.2218
-2.4857 FOOD -0.2218
-2.4857 GOTOTHE -0.2218
-2.4857 GRASPTHE -0.2218
-2.4857 HALL -0.2218
-2.4857 HUH -0.2218
-2.4857 HUM -0.2218
-2.4857 INTHE -0.2218
-2.4857 KITCHEN -0.2218
-2.4857 LIVINGROOM -0.2218
-2.4857 LUCY -0.2218
-2.4857 ME -0.2218
-2.4857 MIKE -0.2218
-2.4857 MM -0.2218
-2.4857 NAA -0.2218
-2.4857 OBJECTS -0.2218
-2.4857 OFFERA -0.2218
-2.4857 PERSON -0.2218
-2.4857 PU -0.2218
-2.4857 REPORTTO -0.2218
-2.4857 REPORTTOME -0.2218
-2.4857 S -0.2218
-2.4857 SH -0.2218
-2.4857 SHELF -0.2218
-2.4857 SS -0.2218
-2.4857 SUSAN -0.2218
-2.4857 TAKETHEMTO -0.2218
-2.4857 TAKETHISOBJECT -0.2218
-2.4857 TELLTHETIME -0.2218
-2.4857 THE -0.2218
-2.4857 TO -0.2218
-2.4857 TOTHEPERSON -0.2218
-2.4857 TU -0.2218
-2.4857 TV -0.2218
-2.4857 WA -0.2218

\2-grams:
-2.0086 <s> AND 0.0000
-2.0086 <s> ANSWERHERAQUESTION 0.0000
-2.0086 <s> ANSWERHIMAQUESTION 0.0000
-2.0086 <s> ATTHE 0.0000
-2.0086 <s> BEDROOM 0.0000
-2.0086 <s> BRINGA 0.0000
-2.0086 <s> BRINGIT 0.0000
-2.0086 <s> CH 0.0000
-2.0086 <s> COKE 0.0000
-2.0086 <s> COUNTTHE 0.0000
-2.0086 <s> CRACKERS 0.0000
-2.0086 <s> DINNERTABLE 0.0000
-2.0086 <s> DOOR 0.0000
-2.0086 <s> DRINK 0.0000
-2.0086 <s> FINDAPERSON 0.0000
-2.0086 <s> FOLLOWHER 0.0000
-2.0086 <s> FOLLOWHIM 0.0000
-2.0086 <s> FOOD 0.0000
-2.0086 <s> GOTOTHE 0.0000
-2.0086 <s> GRASPTHE 0.0000
-2.0086 <s> HALL 0.0000
-2.0086 <s> HUH 0.0000
-2.0086 <s> HUM 0.0000
-2.0086 <s> INTHE 0.0000
-2.0086 <s> KITCHEN 0.0000
-2.0086 <s> LIVINGROOM 0.0000
-2.0086 <s> LUCY 0.0000
-2.0086 <s> ME 0.0000
-2.0086 <s> MIKE 0.0000
-2.0086 <s> MM 0.0000
-2.0086 <s> NAA 0.0000
-2.0086 <s> OBJECTS 0.0000
-2.0086 <s> OFFERA 0.0000
-2.0086 <s> PERSON 0.0000
-2.0086 <s> PU 0.0000
-2.0086 <s> REPORTTO 0.0000
-2.0086 <s> REPORTTOME 0.0000
-2.0086 <s> S 0.0000
-2.0086 <s> SH 0.0000
-2.0086 <s> SHELF 0.0000
-2.0086 <s> SS 0.0000
-2.0086 <s> SUSAN 0.0000
-2.0086 <s> TAKETHEMTO 0.0000
-2.0086 <s> TAKETHISOBJECT 0.0000
-2.0086 <s> TELLTHETIME 0.0000
-2.0086 <s> THE 0.0000
-2.0086 <s> TO 0.0000
-2.0086 <s> TOTHEPERSON 0.0000
-2.0086 <s> TU 0.0000
-2.0086 <s> TV 0.0000
-2.0086 <s> WA 0.0000
-0.3010 AND </s> -0.3010
-0.3010 ANSWERHERAQUESTION </s> -0.3010
-0.3010 ANSWERHIMAQUESTION </s> -0.3010
-0.3010 ATTHE </s> -0.3010
-0.3010 BEDROOM </s> -0.3010
-0.3010 BRINGA </s> -0.3010
-0.3010 BRINGIT </s> -0.3010
-0.3010 CH </s> -0.3010
-0.3010 COKE </s> -0.3010
-0.3010 COUNTTHE </s> -0.3010
-0.3010 CRACKERS </s> -0.3010
-0.3010 DINNERTABLE </s> -0.3010
-0.3010 DOOR </s> -0.3010
-0.3010 DRINK </s> -0.3010
-0.3010 FINDAPERSON </s> -0.3010
-0.3010 FOLLOWHER </s> -0.3010
-0.3010 FOLLOWHIM </s> -0.3010
-0.3010 FOOD </s> -0.3010
-0.3010 GOTOTHE </s> -0.3010
-0.3010 GRASPTHE </s> -0.3010
-0.3010 HALL </s> -0.3010
-0.3010 HUH </s> -0.3010
-0.3010 HUM </s> -0.3010
-0.3010 INTHE </s> -0.3010
-0.3010 KITCHEN </s> -0.3010
-0.3010 LIVINGROOM </s> -0.3010
-0.3010 LUCY </s> -0.3010
-0.3010 ME </s> -0.3010
-0.3010 MIKE </s> -0.3010
-0.3010 MM </s> -0.3010
-0.3010 NAA </s> -0.3010
-0.3010 OBJECTS </s> -0.3010
-0.3010 OFFERA </s> -0.3010
-0.3010 PERSON </s> -0.3010
-0.3010 PU </s> -0.3010
-0.3010 REPORTTO </s> -0.3010
-0.3010 REPORTTOME </s> -0.3010
-0.3010 S </s> -0.3010
-0.3010 SH </s> -0.3010
-0.3010 SHELF </s> -0.3010
-0.3010 SS </s> -0.3010
-0.3010 SUSAN </s> -0.3010
-0.3010 TAKETHEMTO </s> -0.3010
-0.3010 TAKETHISOBJECT </s> -0.3010
-0.3010 TELLTHETIME </s> -0.3010
-0.3010 THE </s> -0.3010
-0.3010 TO </s> -0.3010
-0.3010 TOTHEPERSON </s> -0.3010
-0.3010 TU </s> -0.3010
-0.3010 TV </s> -0.3010
-0.3010 WA </s> -0.3010

\3-grams:
-0.3010 <s> AND </s>
-0.3010 <s> ANSWERHERAQUESTION </s>
-0.3010 <s> ANSWERHIMAQUESTION </s>
-0.3010 <s> ATTHE </s>
-0.3010 <s> BEDROOM </s>
-0.3010 <s> BRINGA </s>
-0.3010 <s> BRINGIT </s>
-0.3010 <s> CH </s>
-0.3010 <s> COKE </s>
-0.3010 <s> COUNTTHE </s>
-0.3010 <s> CRACKERS </s>
-0.3010 <s> DINNERTABLE </s>
-0.3010 <s> DOOR </s>
-0.3010 <s> DRINK </s>
-0.3010 <s> FINDAPERSON </s>
-0.3010 <s> FOLLOWHER </s>
-0.3010 <s> FOLLOWHIM </s>
-0.3010 <s> FOOD </s>
-0.3010 <s> GOTOTHE </s>
-0.3010 <s> GRASPTHE </s>
-0.3010 <s> HALL </s>
-0.3010 <s> HUH </s>
-0.3010 <s> HUM </s>
-0.3010 <s> INTHE </s>
-0.3010 <s> KITCHEN </s>
-0.3010 <s> LIVINGROOM </s>
-0.3010 <s> LUCY </s>
-0.3010 <s> ME </s>
-0.3010 <s> MIKE </s>
-0.3010 <s> MM </s>
-0.3010 <s> NAA </s>
-0.3010 <s> OBJECTS </s>
-0.3010 <s> OFFERA </s>
-0.3010 <s> PERSON </s>
-0.3010 <s> PU </s>
-0.3010 <s> REPORTTO </s>
-0.3010 <s> REPORTTOME </s>
-0.3010 <s> S </s>
-0.3010 <s> SH </s>
-0.3010 <s> SHELF </s>
-0.3010 <s> SS </s>
-0.3010 <s> SUSAN </s>
-0.3010 <s> TAKETHEMTO </s>
-0.3010 <s> TAKETHISOBJECT </s>
-0.3010 <s> TELLTHETIME </s>
-0.3010 <s> THE </s>
-0.3010 <s> TO </s>
-0.3010 <s> TOTHEPERSON </s>
-0.3010 <s> TU </s>
-0.3010 <s> TV </s>
-0.3010 <s> WA </s>

\end\
